14 100
霍乱时期的爱情 0.000347 -0.001331 -0.002561 -0.001736 -0.001024 -0.002929 -0.003760 -0.003725 -0.001375 -0.002946 -0.001585 -0.002880 0.004623 0.004288 0.000242 0.000433 0.001035 0.003288 0.000384 0.004989 -0.004670 -0.001702 -0.002850 -0.002781 -0.001359 0.000833 0.002105 -0.001226 0.000929 -0.004678 0.001165 -0.002741 -0.004618 -0.001682 -0.002095 0.001194 0.000873 -0.002617 0.003816 0.003196 0.003627 -0.004478 -0.003984 -0.004189 -0.001555 0.003156 -0.003722 -0.002394 0.000526 -0.000316 -0.002285 -0.003998 -0.002486 -0.000589 0.001087 0.004731 -0.004955 0.003808 -0.004320 -0.000242 0.002670 -0.002999 0.004467 -0.002067 -0.001877 0.003100 -0.000293 -0.004162 -0.003831 0.004088 -0.003115 0.000617 -0.002921 0.003597 0.004230 0.000779 0.004479 0.002630 -0.004460 0.000855 -0.002421 0.002373 -0.000655 0.001845 -0.002141 0.003574 -0.003499 -0.000224 0.003710 0.003714 0.000642 -0.001654 0.003683 -0.002199 0.003319 -0.000958 0.001622 0.004216 -0.000453 0.000218
迟到的间隔年 -0.004510 0.001613 -0.003225 -0.000471 0.001111 0.002166 0.002009 -0.001570 0.002457 0.000135 0.002951 0.002766 0.003001 -0.004568 -0.004687 0.004741 -0.000377 -0.004307 -0.001381 -0.001709 0.001621 -0.002747 0.004245 -0.003344 -0.001597 0.003440 -0.000289 -0.004984 0.002179 -0.000319 -0.004131 -0.000505 -0.003352 0.004049 -0.000157 0.003642 -0.002156 -0.001169 -0.003308 0.003047 -0.004393 -0.001700 0.004970 0.003577 -0.004054 -0.004892 0.000605 -0.003330 -0.004101 -0.003124 0.003355 -0.002769 0.002884 0.004234 -0.002213 -0.002033 -0.002146 -0.004261 0.002108 -0.001889 -0.002157 0.004169 -0.003457 0.002013 0.002303 -0.003058 0.004067 -0.002752 0.003356 0.004711 -0.001087 0.002407 -0.000296 0.001810 0.000758 0.002411 0.000079 -0.003634 -0.004300 -0.004164 -0.003923 0.002999 -0.002633 0.001886 -0.000359 -0.001467 0.003083 0.000691 0.002308 0.000767 -0.000199 -0.004733 -0.002166 0.002185 -0.004590 -0.000839 -0.001467 -0.004214 -0.003793 -0.003720
背包十年:我的职业是旅行 -0.002098 0.001475 -0.004904 0.001477 -0.004480 0.002594 0.003586 0.002610 0.003624 -0.003475 -0.000467 0.001294 0.003666 -0.000358 0.000536 -0.004597 0.004805 -0.003485 -0.004834 0.001231 0.004333 -0.004621 0.001791 0.002537 -0.003114 0.000466 -0.000263 -0.001616 -0.003334 0.002982 0.004262 0.004782 -0.003295 -0.002050 0.003919 0.003779 -0.002866 -0.002590 0.000062 -0.001175 0.002361 0.004233 0.003177 -0.002456 -0.002484 -0.002042 -0.000686 0.002990 0.002993 0.004238 0.004418 -0.001957 0.001128 0.001032 0.004231 -0.003685 -0.001248 -0.002052 -0.002016 -0.003998 0.003156 -0.003713 0.002265 -0.003419 -0.003590 -0.000079 -0.001715 -0.004886 0.003529 0.003799 -0.001089 0.002730 -0.004178 0.000748 0.002951 0.004618 -0.001364 -0.003111 0.002318 -0.001217 -0.004367 0.003256 -0.004690 0.000890 0.002077 0.004799 0.002970 0.003816 0.001673 0.003790 -0.003558 -0.002158 0.004929 -0.001547 -0.000874 0.001092 -0.004364 -0.002848 -0.004903 -0.001184
失控 -0.003540 -0.002800 -0.002804 0.002137 0.004001 -0.002507 -0.002270 0.002351 -0.001835 -0.000205 -0.003067 -0.001058 0.002222 0.000813 0.001717 0.001093 0.004709 0.004360 -0.003570 0.001080 0.000087 -0.003135 0.001159 -0.001018 0.000406 0.004230 -0.002097 0.004164 0.004645 -0.004182 0.003661 -0.004567 -0.001900 -0.000520 0.001253 -0.001140 -0.001842 -0.002335 0.001238 -0.003056 -0.000927 0.004560 0.002499 -0.001043 -0.002381 0.001141 0.000185 -0.000463 0.000799 0.003013 -0.001232 -0.000104 0.001414 0.001169 0.003001 -0.001259 -0.001884 0.002721 -0.004836 -0.002989 0.000059 -0.000141 -0.002651 0.001636 -0.004263 -0.000149 0.004367 -0.002225 0.004218 0.000709 0.003776 -0.002052 0.002543 -0.002752 -0.001447 -0.002637 0.002353 -0.001043 0.001214 -0.001954 0.003581 0.001610 0.003345 0.002484 0.003021 -0.003593 0.003349 -0.003117 -0.004788 -0.002811 -0.000723 -0.004341 0.001409 0.003878 -0.002897 -0.000714 0.000839 -0.001841 -0.004554 -0.004249
枪炮、病菌与钢铁:人类社会的命运 -0.001254 0.002927 -0.001540 -0.000541 0.000924 0.002192 -0.000162 0.003145 0.001887 0.002379 -0.003754 0.001762 -0.004705 0.002528 -0.001121 -0.002932 0.000079 -0.003087 0.000792 -0.004982 -0.003731 -0.003201 -0.002319 -0.004449 -0.003276 0.004335 0.000431 -0.004986 0.002621 0.004653 -0.003982 -0.002993 -0.003348 -0.004208 0.003361 -0.003571 0.001537 0.002565 -0.003850 -0.003965 -0.004851 0.002876 0.003375 0.003537 -0.001851 0.000785 -0.001028 0.001030 0.000686 0.000639 -0.000560 -0.001821 0.001552 0.002618 0.003668 0.004197 0.003830 0.000266 0.001226 0.004373 0.004090 0.000705 -0.003151 -0.001621 0.002994 0.000504 0.000241 0.001711 -0.003815 0.003403 0.004616 0.003710 0.000544 0.003568 0.000520 -0.003145 0.002361 -0.004788 0.003101 -0.004411 -0.002545 0.003867 0.000184 -0.001608 0.004665 -0.000770 0.004736 0.002433 -0.000776 0.004312 0.004708 -0.001291 0.004665 0.000358 0.002908 -0.000026 0.003179 -0.002148 0.000107 -0.003119
寻路中国:从乡村到工厂的自驾之旅 0.004390 0.002800 0.002884 0.003947 -0.003863 -0.001198 0.002867 -0.001876 0.000362 -0.000176 -0.003142 0.002860 -0.001708 0.000161 -0.004732 0.003098 -0.003281 -0.002870 -0.003508 0.004938 0.002753 -0.004256 -0.000903 0.000365 0.000324 0.002808 0.002674 -0.000958 -0.001529 -0.001312 -0.004084 0.004979 -0.001787 0.001139 0.004344 0.000547 0.003045 -0.004130 0.002621 0.003652 -0.000470 0.000656 -0.004384 0.000157 0.004273 -0.003907 -0.002717 0.003131 0.002623 -0.002194 0.001875 0.001844 0.001340 -0.004333 -0.000818 -0.003825 0.002851 0.001549 -0.003268 0.002782 0.004113 -0.000794 0.001128 0.003058 -0.004412 0.002067 -0.004793 -0.002087 0.002256 0.003175 0.003064 0.002243 -0.002411 -0.003796 -0.003788 -0.001554 0.001482 0.004294 -0.004993 0.003669 0.001137 -0.003360 -0.003340 0.000499 -0.000972 -0.002101 0.003130 -0.003790 -0.004264 0.000492 0.000499 0.003951 0.001494 -0.004470 -0.000671 0.000432 0.001959 0.003549 0.002046 -0.002694
中国历代政治得失 -0.000551 0.001459 0.003506 0.001737 -0.003813 0.002851 0.003924 0.003268 0.001169 0.001843 -0.000015 0.000834 0.003513 0.003681 0.000011 -0.004858 -0.002643 -0.000324 0.003402 -0.000793 -0.003779 0.001373 0.004016 -0.001338 0.003965 0.003900 -0.002890 0.000698 0.001920 -0.002069 -0.003456 -0.003248 0.002632 0.003271 0.000927 -0.001616 0.000198 0.004322 -0.001354 0.004768 0.003174 0.002147 -0.004322 0.002762 -0.002458 0.002577 0.003976 0.000133 -0.002963 0.001397 -0.003130 -0.004801 -0.000895 0.000444 -0.001610 -0.000870 -0.004141 0.002757 -0.003153 -0.001034 0.002180 -0.001556 0.000338 -0.000185 -0.003236 -0.001067 -0.004715 -0.002525 0.002363 -0.000369 0.004884 0.001956 0.000395 -0.001683 0.004285 0.000539 0.001153 -0.003231 0.001415 0.001217 0.003785 0.003140 -0.003468 0.000320 -0.003741 -0.001973 0.000649 0.002806 0.003629 -0.001379 0.002019 -0.003073 0.004793 0.000222 0.002979 -0.004613 -0.002997 -0.003904 -0.000378 -0.004368
巨人的陨落:世纪三部曲 -0.000976 0.001384 -0.001695 -0.004182 -0.003183 -0.003140 0.000769 -0.004000 -0.002134 -0.000395 0.002408 0.004002 -0.000463 -0.002327 0.004135 -0.004905 -0.002785 -0.003591 -0.000723 -0.001045 0.003465 -0.001787 -0.000382 -0.003034 0.001442 0.004083 -0.002444 -0.000126 0.004145 0.000011 -0.000314 -0.003978 0.003115 -0.000639 -0.001683 0.002580 0.000026 -0.000629 0.000449 -0.002415 -0.000037 0.000123 0.000049 -0.003755 -0.004194 0.003410 -0.004775 0.001829 -0.003406 0.000896 0.002817 -0.003852 -0.002111 0.000480 -0.000830 0.003875 -0.003389 -0.002380 -0.000052 -0.003797 -0.000568 0.000828 -0.000064 0.002607 -0.001092 -0.003752 -0.003581 0.000767 -0.003773 0.000672 0.000462 -0.002692 -0.004097 0.002898 0.003841 -0.001955 -0.000925 0.004336 -0.004918 -0.004645 0.004871 0.003204 0.001704 -0.000496 0.004285 -0.001318 0.000191 0.004448 -0.001422 0.004260 -0.002788 -0.002705 0.000535 -0.001598 -0.003668 0.001533 0.004816 0.004207 0.000163 0.003516
人类简史:从动物到上帝 0.003777 -0.003566 -0.004620 -0.000363 -0.002304 0.003730 -0.004809 -0.004731 -0.003614 -0.001653 -0.004176 -0.002832 -0.002333 -0.003734 0.002588 -0.001071 -0.002152 0.002728 -0.001029 -0.001639 0.004354 -0.003140 -0.002774 0.000516 -0.004534 0.002676 -0.000676 0.003874 0.004298 -0.000728 -0.000729 0.003800 -0.003385 0.000496 -0.001652 0.004569 -0.000539 0.004302 0.004790 -0.001112 0.000970 -0.004310 -0.000945 -0.003948 -0.002894 0.001342 -0.002164 0.002927 -0.002493 0.003884 0.004539 -0.003144 0.003140 0.000902 -0.002203 0.004389 0.002757 0.002073 0.003208 -0.002594 0.000384 -0.004188 0.004234 0.003162 -0.004523 0.004964 -0.004240 -0.001053 0.000191 0.002379 0.000623 -0.001109 -0.000184 0.000704 -0.001729 0.003903 -0.001146 -0.001082 0.002134 -0.003360 0.003787 -0.000162 -0.001753 -0.001488 -0.002792 0.001901 -0.004224 -0.003588 0.002443 -0.000231 0.002359 -0.004526 -0.004001 -0.003496 -0.003059 0.001490 -0.003546 0.003482 -0.002079 -0.002319
从0到1 0.001095 -0.003138 0.002029 0.003491 0.003610 -0.002178 0.001673 -0.000486 0.002233 -0.002361 0.001780 -0.002622 -0.001970 0.004341 0.000054 0.004915 -0.002471 0.004727 0.004584 -0.002741 0.002974 0.004310 0.004144 0.001110 0.002674 -0.000960 0.002604 0.000497 -0.002038 0.000322 -0.004851 -0.001815 0.003613 -0.000114 -0.002021 0.002556 0.002598 -0.002670 0.000103 0.000514 0.001744 0.000453 0.004897 0.000644 -0.001667 0.001020 0.004960 0.002333 0.000581 0.000584 0.001820 0.003511 0.003058 -0.000197 0.002891 -0.004479 -0.004032 0.004102 -0.000066 0.004428 0.003167 -0.003802 -0.003412 0.003023 -0.001927 0.002639 -0.002639 0.004301 0.004427 0.001086 0.002619 0.002122 -0.002504 -0.002053 0.003980 -0.000167 0.003149 0.001014 0.001654 -0.003522 -0.001098 -0.004755 0.001290 -0.001400 -0.002744 -0.000203 -0.003189 0.004727 0.003365 0.004179 -0.001083 0.002512 -0.001675 -0.001135 -0.004825 0.001695 0.004954 -0.002321 0.000463 0.004789
浪潮之巅 -0.004769 -0.002938 0.002150 0.001620 -0.000824 -0.000787 0.001826 -0.004228 0.001913 -0.004726 -0.000438 -0.003165 -0.002043 0.003720 0.002022 0.001295 0.000151 0.002746 -0.003330 -0.004986 0.001756 0.004565 0.000685 0.004239 -0.002270 0.004204 -0.001801 -0.002016 0.004939 0.004160 -0.002150 0.004034 -0.001119 -0.003433 0.003802 0.001659 -0.000712 -0.001579 -0.004962 -0.004486 0.002212 0.003881 0.002089 0.001643 0.001092 0.002410 0.001487 -0.000810 0.003657 0.000211 -0.001078 -0.000896 0.002150 0.002735 -0.002282 -0.001798 -0.002092 -0.004755 -0.001869 -0.001341 -0.004257 -0.003937 0.004969 -0.001374 -0.004436 0.000451 -0.003471 -0.000743 -0.004433 -0.004449 -0.004285 0.000023 0.004261 -0.002286 0.004774 -0.000367 -0.004565 0.002821 0.001226 -0.004627 0.003174 0.000800 0.001392 0.003431 0.004228 -0.000534 0.002387 0.000761 -0.001501 -0.000981 -0.003361 0.004124 -0.002216 0.002417 0.002346 -0.002235 0.000886 0.004734 0.002362 0.004087
创业维艰 0.001777 0.001937 0.003497 0.000219 0.004047 -0.002493 0.002131 -0.002034 -0.001055 0.001309 0.001107 0.000115 0.001978 0.004545 -0.002713 -0.000094 0.001657 0.002154 0.002423 0.003323 0.002217 -0.000695 -0.004301 -0.000178 -0.003586 -0.002549 -0.002349 -0.002127 -0.001604 -0.000606 -0.002887 0.003129 -0.000373 0.000530 0.001196 -0.001281 -0.002236 0.001508 -0.001800 -0.003781 0.000131 0.003919 0.000487 0.004159 -0.000663 0.000299 -0.001549 0.000773 -0.000440 0.000510 -0.004847 0.001578 0.003228 0.000149 -0.002495 -0.003081 0.003066 -0.002265 -0.001999 -0.004724 -0.004729 0.003416 0.000611 0.001500 0.001045 -0.004958 -0.000197 -0.003616 -0.000421 -0.002426 -0.001491 -0.000098 -0.004706 0.000731 0.002424 -0.003337 0.002335 0.004813 0.002945 -0.000903 0.004837 0.002833 0.002451 -0.002391 -0.000589 0.004051 -0.000844 -0.000554 0.004593 0.000332 0.001937 0.001525 -0.003658 0.000635 0.000336 -0.003145 0.002500 -0.003073 0.004050 -0.001771
活着 -0.004714 0.004811 0.004801 -0.004226 -0.001893 0.003510 0.004460 0.001251 0.002663 -0.001239 -0.000405 0.004344 0.004464 0.003144 -0.001324 -0.004276 -0.000536 -0.003258 0.001171 0.001905 -0.003346 0.002318 0.003416 0.003528 -0.003593 -0.003601 -0.004743 -0.002367 0.003274 -0.000504 -0.004609 0.001581 -0.004322 0.004483 0.002551 -0.000858 -0.000261 -0.004597 -0.000645 0.002442 -0.004154 0.004630 -0.004231 0.004131 -0.000262 0.003610 0.003909 0.002710 0.003839 0.004877 -0.003141 0.002131 0.002488 -0.000791 0.001818 0.003110 -0.003284 -0.004528 -0.004490 0.001867 0.003858 0.003823 0.003364 -0.004470 0.002469 0.002839 0.003729 0.000280 -0.004587 0.003047 0.001872 -0.003843 -0.004745 -0.001507 -0.001898 0.002194 0.003439 0.004639 -0.000435 0.004181 0.004211 -0.004822 0.003046 0.000131 -0.004586 -0.001120 -0.000338 -0.004018 -0.000637 -0.004790 -0.004118 -0.001436 0.003638 -0.004890 -0.003034 -0.003491 -0.004700 0.000042 0.003654 0.001737
百年孤独 -0.001024 0.003355 0.002990 0.001424 0.002362 0.004307 -0.003805 -0.004456 0.001835 0.003285 0.002740 0.000246 -0.004994 -0.002177 0.001479 0.002735 0.002409 0.000275 0.004606 -0.002154 -0.002890 0.000622 -0.004426 -0.002865 0.004729 0.001780 0.003868 -0.004470 -0.001216 0.000679 0.000904 -0.004356 -0.001907 -0.001992 -0.002772 -0.004096 0.000586 -0.000092 -0.004734 -0.001224 -0.003707 -0.003333 0.004701 0.001869 0.004547 0.003981 0.001172 -0.003188 0.004458 -0.000355 0.003612 -0.002768 0.001573 -0.003475 0.000418 -0.001612 -0.001847 -0.002189 0.003599 -0.000471 0.004084 -0.000121 -0.004505 0.000168 -0.001930 -0.001208 -0.000766 0.003178 0.003441 -0.003798 0.004363 -0.002963 -0.002153 0.001772 0.003386 -0.001625 0.001889 -0.001788 0.002349 0.000237 -0.002805 -0.003173 -0.001499 0.004438 -0.002702 -0.002248 0.004594 -0.004027 0.003565 -0.000622 0.003602 -0.004588 -0.004917 -0.003263 0.001566 -0.003961 -0.002409 -0.000309 0.003941 -0.003924
