14 100
霍乱时期的爱情 -0.000769 -0.003323 -0.001202 -0.000913 0.003399 -0.001411 -0.003035 0.002229 0.004558 0.001640 0.002484 -0.000465 0.003173 -0.000298 -0.000960 -0.004930 0.000008 0.001375 0.002387 -0.002964 -0.003729 0.002874 0.004000 0.004296 0.003833 0.001505 -0.002198 0.004497 -0.001720 -0.003508 -0.004136 0.004297 0.004653 -0.004132 -0.001098 -0.002794 -0.002647 -0.002704 -0.003078 0.003028 0.004626 -0.001832 -0.004122 -0.003226 0.004176 -0.003611 0.001977 0.003636 0.003111 -0.000288 0.004937 0.002886 0.004305 -0.003461 -0.003785 -0.002676 -0.003304 0.000758 -0.004127 0.002127 0.001380 0.002417 -0.003024 0.003244 0.001961 0.002846 -0.004603 0.002777 0.003207 -0.003294 -0.001349 0.001586 -0.004245 0.002822 0.001066 0.003263 -0.000552 0.001528 0.001432 -0.000510 -0.002056 0.003495 -0.001552 -0.003258 0.004415 -0.000829 -0.000919 -0.002934 -0.001113 -0.001598 -0.003291 0.004645 -0.001977 -0.000649 -0.002557 -0.003308 -0.002245 0.003722 0.003418 -0.003277
迟到的间隔年 -0.004531 0.004115 -0.004905 0.004209 -0.002952 0.002481 0.001582 -0.002527 -0.004383 0.002334 -0.004594 0.003325 0.004355 -0.000639 -0.000783 0.002470 -0.002475 0.004002 -0.004795 0.001235 0.003428 0.004093 0.001749 -0.002252 0.000318 0.004529 0.002083 -0.001044 -0.003825 -0.004721 -0.003371 -0.003707 0.002382 0.000667 0.003082 -0.003186 0.003408 0.002673 -0.000233 0.003782 0.000444 -0.003306 0.003504 -0.004653 -0.001642 0.002451 -0.002516 -0.000825 0.000136 0.000076 0.003407 -0.002057 -0.004592 -0.004372 0.001032 -0.004428 0.004004 0.003775 -0.003354 -0.004152 -0.004257 0.002966 0.002290 0.004551 0.000983 0.000224 0.003472 0.002880 0.002682 -0.001466 0.002423 -0.001886 0.001666 -0.000029 -0.003310 -0.001071 -0.003633 -0.003581 -0.004258 -0.000402 0.003912 -0.004289 0.001262 0.000059 -0.001648 0.003110 0.004214 0.000063 -0.004664 -0.001470 -0.000487 0.004340 -0.001787 0.001391 0.002874 -0.000109 0.000906 -0.001868 0.004452 -0.004968
背包十年:我的职业是旅行 0.002563 -0.001628 0.002879 0.002898 -0.003960 0.004128 -0.002822 0.003390 0.002158 -0.000441 0.000755 0.000418 -0.001912 -0.002372 0.004239 -0.004924 -0.000529 -0.002935 0.001428 0.002800 0.001331 0.004716 -0.001344 0.000384 -0.003547 -0.001428 -0.001560 0.000985 -0.003889 -0.001289 -0.002346 0.004337 -0.003843 0.001737 0.002493 -0.003993 0.001059 -0.001832 0.001510 -0.002154 0.000260 -0.004676 0.000980 0.002013 -0.004032 -0.001300 0.001246 -0.003852 0.003344 -0.003566 0.000430 -0.004277 0.000154 0.004142 -0.000006 -0.000988 0.001484 0.003803 0.000172 0.002562 0.001238 -0.002841 0.004480 -0.000616 0.000669 -0.003569 0.001942 0.001542 0.003117 0.003005 0.003889 0.002589 0.001113 -0.003378 -0.002343 0.000686 0.002440 0.004066 -0.001313 -0.003967 -0.001186 0.000041 0.000012 -0.002407 0.000563 0.001350 -0.001908 -0.003662 0.001240 -0.003011 -0.004353 0.003230 -0.003274 0.004171 0.003520 -0.003781 0.002778 -0.003716 0.002893 0.003738
失控 -0.004242 0.004308 -0.003489 -0.002971 -0.001101 -0.002820 0.000002 0.000557 -0.001163 0.004853 0.002835 0.003512 0.004751 0.001939 -0.002253 0.000426 -0.000571 -0.000543 -0.000569 -0.001395 -0.001956 0.002115 -0.004448 0.001295 0.002320 -0.001570 -0.003782 -0.000437 -0.002621 0.003720 0.000194 -0.002922 0.002433 -0.003700 -0.002481 -0.002186 -0.001956 0.000486 -0.001539 -0.003690 -0.001837 -0.004261 -0.001070 -0.003713 0.004041 0.003872 0.001323 -0.003835 -0.000561 -0.002346 0.002048 0.000256 0.001414 -0.002185 -0.001491 0.003835 0.003749 0.003530 0.004780 -0.001895 0.002677 0.002061 -0.000258 0.002620 0.001977 0.001069 -0.000409 -0.002847 0.003287 0.000317 0.003520 -0.001196 0.000470 -0.001172 0.001411 -0.003142 0.000785 -0.000555 -0.004158 0.004336 0.002376 -0.000715 -0.003039 0.002804 0.002402 0.004037 0.000328 0.004354 -0.002098 -0.002624 0.002187 -0.002972 0.001899 -0.002120 -0.000772 0.002429 0.000587 -0.000173 -0.001061 0.003896
百年孤独 -0.000119 0.003265 -0.001720 0.003000 -0.002747 0.004862 0.005003 -0.001926 0.001470 -0.004528 0.001205 -0.004714 0.002703 -0.003103 0.000035 -0.000637 -0.004516 -0.004322 -0.003574 0.002614 -0.001475 0.000414 -0.001764 0.002087 -0.001776 0.001259 -0.004261 -0.003034 -0.000964 -0.002466 -0.002583 -0.003122 0.002369 -0.001560 0.000382 0.004192 0.002581 0.004758 -0.000726 0.000994 0.004454 -0.003965 -0.000610 0.002895 -0.004820 -0.002216 -0.001696 -0.000662 0.002801 -0.003439 -0.003700 -0.001368 -0.002185 -0.002985 -0.001923 0.001437 -0.000577 0.002478 -0.000552 0.004841 0.002334 0.003938 -0.002122 0.004840 -0.001458 -0.002851 0.000574 0.000492 -0.002221 -0.003314 -0.003162 0.004184 -0.004154 0.002741 0.000552 -0.000566 -0.004867 0.002274 0.004101 -0.000011 -0.000064 -0.001373 0.002623 0.001964 0.000054 0.001554 0.004297 -0.004596 0.004542 0.000941 -0.000529 0.003231 -0.002524 0.003332 0.001291 0.001989 -0.000526 0.002079 -0.001665 -0.002544
人类简史:从动物到上帝 -0.002527 -0.000098 0.000718 0.004689 -0.003182 0.000314 0.003143 -0.000032 0.002979 0.004463 -0.000099 0.002364 0.002108 -0.004092 0.003951 -0.000598 -0.003241 -0.004249 -0.000068 0.002585 0.001067 -0.004950 -0.003314 -0.002500 -0.003322 -0.003049 -0.001166 -0.001063 0.001925 -0.002022 0.004032 -0.003690 -0.001053 -0.003376 -0.003724 -0.002725 0.004646 -0.001110 0.001432 0.002167 -0.004378 -0.000781 -0.003633 -0.001064 -0.003505 -0.004549 0.001287 -0.001347 0.003259 -0.003310 -0.002809 0.003201 -0.000699 0.004005 -0.002587 -0.004504 0.001772 -0.001126 0.004762 0.001162 0.003726 0.003835 0.003161 -0.002721 0.003781 0.004476 -0.002396 0.002802 -0.002344 -0.003136 -0.003966 -0.001485 0.002044 0.001220 -0.002427 0.000149 -0.001040 -0.002257 0.000475 0.001994 -0.000473 -0.002125 0.001060 0.004343 -0.000697 -0.000338 -0.000641 0.000247 -0.003251 0.000927 -0.004709 -0.002693 0.004188 -0.000473 0.003522 0.001489 -0.001842 -0.000213 0.004452 -0.003256
活着 -0.000899 -0.003173 0.000565 0.003420 0.001785 0.002738 -0.001515 0.002188 0.004675 -0.003967 0.000395 -0.001937 -0.001581 0.001735 -0.004196 -0.002405 -0.004124 0.000650 0.002496 -0.001826 -0.000036 -0.003311 -0.003926 0.002544 -0.003479 -0.000068 0.004493 -0.004290 -0.002652 -0.003076 -0.002046 0.000700 0.000965 0.003129 0.004929 -0.001600 -0.003589 -0.003974 0.001329 -0.001826 -0.002412 -0.003036 0.003234 -0.002243 0.000051 -0.000171 -0.002658 0.005000 -0.000388 0.000453 -0.000204 0.004110 -0.003626 -0.003093 -0.003885 -0.004576 0.000736 0.002304 0.003250 0.003354 0.002066 -0.004275 0.000376 0.002980 -0.001649 0.002755 -0.003387 0.001113 0.004928 -0.000116 -0.004509 0.003351 0.002397 -0.002154 -0.004751 0.004867 -0.004836 0.001175 -0.001499 -0.003583 0.003117 -0.002691 -0.000144 0.001864 0.003586 -0.004712 -0.002245 0.000035 0.003443 -0.002220 -0.003664 0.000722 -0.003091 -0.004746 -0.003705 -0.000015 0.003301 -0.002545 0.004220 0.000117
巨人的陨落:世纪三部曲 0.001524 -0.001070 0.002750 0.002731 0.003749 0.000634 -0.000145 -0.000801 0.001403 0.000479 -0.004699 0.004685 0.004111 -0.004555 0.000950 0.000808 0.003096 -0.004331 -0.003792 0.004532 -0.001640 0.000485 -0.004280 0.004302 0.003938 -0.004536 -0.001742 -0.002532 -0.001753 -0.000729 -0.004515 -0.003501 0.000751 0.001990 0.002126 -0.000415 -0.002850 -0.004036 -0.002921 0.002194 -0.003332 -0.004399 0.002805 0.002384 0.000413 0.002484 -0.000419 0.001716 -0.003179 0.004771 0.004258 0.001946 0.003818 -0.002333 -0.002662 -0.000728 -0.004721 0.003447 -0.001391 0.002286 -0.000596 0.002304 0.001113 -0.000626 -0.001197 -0.004308 -0.000935 -0.004822 0.002395 -0.003688 0.001129 0.001785 0.003000 -0.003032 0.000604 0.004751 0.000698 0.000279 -0.003845 0.001131 -0.002350 -0.003103 -0.002163 0.002741 0.000746 0.000916 0.001235 -0.000613 0.001027 -0.002808 -0.001321 0.002800 -0.001646 -0.003933 -0.001764 0.000279 -0.001559 -0.003619 0.000298 -0.004849
创业维艰 -0.000046 -0.000047 0.003372 -0.003749 0.001898 -0.003925 -0.004747 -0.002372 -0.001710 -0.003900 0.000598 -0.003472 0.002717 -0.001821 0.000027 0.004446 -0.004463 0.003942 0.002098 0.004138 0.004975 0.002532 -0.001999 -0.001504 -0.002886 -0.002407 0.004797 -0.001587 -0.002304 0.000980 0.004883 0.002346 0.004166 0.003626 -0.001807 -0.000026 0.001923 -0.003672 0.003197 0.004281 -0.002601 -0.003069 0.000819 0.000172 0.000829 -0.000943 0.002249 0.004764 -0.002878 -0.003569 0.004485 0.003693 0.000132 -0.004704 -0.001774 -0.003638 0.003082 -0.003006 0.001232 0.004126 0.004415 0.000415 0.000478 -0.000934 -0.003691 0.003738 0.003720 -0.000243 -0.003194 -0.004943 -0.001360 -0.003391 0.001157 -0.003230 -0.004801 -0.000652 0.001957 -0.001646 0.003084 -0.001616 0.003432 0.001724 -0.001212 0.002656 -0.002973 0.003646 0.000229 -0.001476 -0.001193 -0.000613 0.004558 -0.003757 -0.001360 0.002151 -0.003428 -0.002206 -0.004405 0.000459 0.002780 0.000960
浪潮之巅 0.001303 0.002926 -0.001482 -0.002657 0.002293 -0.000715 0.001567 -0.001467 -0.002508 -0.003678 -0.002598 -0.001965 0.002176 -0.003281 -0.003249 -0.004491 -0.001245 0.003660 -0.001100 0.001997 0.001854 0.003029 0.002277 -0.001687 0.002906 0.001893 0.002927 -0.003464 -0.004045 -0.001637 0.003043 -0.004950 0.000651 0.003709 0.002952 0.004985 0.004579 -0.004628 -0.004058 0.004040 -0.003354 0.001049 -0.001516 0.003760 -0.001144 0.003177 -0.001327 0.002442 -0.002700 -0.001417 -0.001979 0.003179 -0.004838 -0.000839 0.003356 -0.000889 0.000800 0.001238 0.000477 -0.004905 0.004245 0.002981 0.002421 0.002039 0.000578 0.004183 -0.002921 -0.002488 -0.001365 -0.000170 -0.004667 -0.002029 0.002636 0.003726 -0.000933 0.001710 -0.001781 0.001408 -0.000945 0.003332 -0.004148 -0.004964 0.003527 0.004039 -0.003269 0.004326 -0.000547 0.002682 0.000176 -0.001599 0.004100 -0.003978 0.000454 0.003131 0.000197 -0.003864 0.002503 0.002975 0.001330 0.001816
寻路中国:从乡村到工厂的自驾之旅 0.001282 -0.002448 0.004760 0.003382 -0.004174 0.004785 0.001050 0.000368 -0.004458 -0.001884 0.004579 -0.000412 -0.000018 0.004193 0.000525 0.000994 -0.000572 0.001311 -0.003058 0.000341 0.000434 0.001621 -0.004836 0.001708 -0.002764 0.000543 0.003406 0.001872 -0.002786 -0.004091 0.001394 -0.003703 0.003163 0.003395 -0.003002 0.000644 0.003178 -0.002773 -0.000754 -0.002426 0.003788 0.004358 -0.004313 0.001115 -0.001267 0.002560 0.001219 -0.004334 0.003314 -0.000017 -0.002420 0.001403 0.000752 0.001501 -0.002205 -0.002273 0.002987 0.001113 0.003663 0.002970 -0.004425 0.000514 -0.001804 0.004134 0.000122 0.003121 -0.003166 0.002116 0.003948 -0.003556 0.004000 0.000492 0.003918 0.001555 -0.004234 0.004249 -0.004851 0.000689 0.003407 0.003146 0.000671 -0.004468 -0.001566 -0.004302 -0.002030 0.003840 -0.000754 0.004879 0.002739 -0.002394 -0.004231 0.001694 -0.000973 -0.004187 0.001384 -0.004257 -0.004379 0.002157 -0.000881 0.001308
从0到1 -0.000391 -0.001975 0.004422 0.002672 -0.002645 0.000983 0.004355 -0.004922 -0.002422 -0.004549 -0.001575 -0.004599 0.002613 -0.001532 0.000757 0.004805 0.001695 -0.002021 -0.001445 0.000428 0.002586 -0.001042 -0.003677 0.004660 -0.000099 0.003893 -0.003857 -0.004719 -0.004659 0.002512 -0.001440 0.001272 -0.003169 -0.000478 0.002571 0.003220 0.003309 0.002607 0.001106 -0.002237 -0.001271 0.004667 -0.000432 0.004965 -0.003491 0.002779 -0.001795 -0.004199 -0.001885 -0.003418 -0.003122 -0.003271 -0.004288 -0.002068 -0.002463 -0.000471 0.000582 -0.001427 -0.003307 -0.001464 0.004937 -0.003321 0.004613 -0.001838 0.002469 0.001675 -0.001739 0.004197 -0.001810 -0.003801 -0.002181 0.004564 0.001503 0.004575 0.004876 -0.002000 -0.001139 0.004678 0.000024 -0.004325 0.000025 0.004756 -0.000443 0.001261 -0.003477 -0.004301 -0.000926 -0.002702 -0.004714 -0.002180 -0.004868 0.000695 -0.003475 -0.001162 0.001699 0.003452 -0.004324 -0.001793 0.000596 0.002250
枪炮、病菌与钢铁:人类社会的命运 -0.003264 0.004534 -0.001757 0.000783 -0.001328 0.003331 -0.004534 -0.002810 0.001197 -0.002671 -0.004692 -0.004521 0.004185 0.003342 -0.002778 -0.002012 -0.002676 -0.004690 -0.003271 -0.004831 -0.005000 -0.003775 0.003085 0.002532 -0.004096 0.004051 -0.001086 0.004872 -0.003004 -0.004826 0.002187 0.003566 -0.004580 0.004030 0.003696 -0.002105 0.002183 0.001950 0.000806 0.004583 -0.004822 0.002094 0.003531 -0.002580 -0.004991 0.002631 0.004227 0.004190 0.003416 0.002867 0.002975 0.001808 0.003313 0.002850 -0.000013 0.001584 0.002216 -0.000431 -0.000268 -0.002352 0.003822 -0.001357 -0.000978 -0.001409 -0.001215 -0.003529 -0.003544 0.003396 -0.002243 -0.002860 0.001958 0.003736 0.001787 0.002497 -0.004235 0.001836 -0.002397 0.001062 0.002938 -0.001108 0.003378 -0.004879 0.002297 0.004774 0.002435 -0.002507 0.003329 0.001093 0.001553 -0.003148 -0.004670 0.004549 -0.003530 -0.000591 0.004575 0.000082 0.000368 0.003013 0.002374 0.003274
中国历代政治得失 0.003620 -0.002019 0.002341 0.003783 0.004619 0.002481 -0.003129 -0.001600 0.001678 -0.004818 0.004127 0.002609 -0.000380 0.003193 0.000675 -0.004994 0.000539 -0.001585 0.000966 0.002173 -0.000459 -0.002796 0.000204 -0.002515 -0.001548 -0.002847 -0.003510 -0.003624 0.004753 0.002296 -0.001439 -0.004850 -0.003867 -0.003396 0.000507 -0.000901 0.004224 -0.001985 -0.001643 -0.000725 0.001370 -0.000588 0.001295 -0.004903 -0.000338 0.004822 -0.001803 0.002051 -0.003594 0.003942 -0.002884 0.001522 0.000029 0.004349 0.000334 0.003806 0.003173 -0.000160 0.004503 -0.003754 -0.002671 -0.002619 -0.000304 -0.004324 -0.000650 -0.001544 -0.000813 0.001899 -0.002246 -0.002281 -0.000430 -0.000539 -0.001432 0.002551 -0.003213 -0.003708 -0.002961 0.002051 0.004031 0.004629 0.001129 0.002827 -0.001520 0.002956 0.002567 -0.001410 0.003569 0.001406 -0.003014 0.002073 0.000846 0.001558 0.000189 0.004632 0.002904 -0.000012 0.003951 0.004610 -0.001581 -0.004498
