14 100
霍乱时期的爱情 -0.002479 0.000067 -0.000843 -0.003766 0.003740 -0.002636 0.003397 0.004096 -0.001911 -0.002949 0.004725 0.004934 -0.002229 0.004718 0.003584 0.002301 -0.002733 -0.003549 0.001950 -0.002710 0.000577 0.000825 0.002722 -0.004361 -0.001268 0.003685 -0.002768 -0.001487 0.002163 -0.002441 -0.004914 -0.002987 -0.004810 0.000261 0.000482 -0.003412 0.001235 0.001201 0.001812 -0.003775 0.003540 -0.002511 -0.004864 -0.001851 -0.004092 0.001363 0.004009 0.002803 0.003590 -0.002882 0.001001 -0.004824 0.002920 0.002346 -0.001918 -0.003168 -0.001691 0.001886 -0.001321 0.004044 -0.004500 0.002907 0.000296 0.004606 0.000043 -0.000396 0.000790 0.004923 -0.000880 -0.004028 -0.000288 -0.001619 -0.003682 -0.000383 -0.002788 0.000925 0.002729 0.004949 0.002600 0.003177 0.000129 -0.003046 -0.001931 0.003197 0.004013 0.002843 -0.003524 -0.002996 -0.004904 0.004825 0.003433 0.000407 -0.000439 0.000408 0.000036 -0.001966 -0.002598 -0.002149 -0.004156 0.000451
迟到的间隔年 -0.002194 -0.004753 -0.003855 0.001921 -0.002101 0.002977 -0.000575 -0.004535 -0.000526 -0.000482 0.001266 -0.004186 -0.001230 -0.002288 -0.004514 0.000780 -0.002524 0.004135 -0.004882 0.002291 0.003387 -0.004528 -0.000303 0.002623 0.004150 0.000886 0.003279 -0.002145 0.001489 0.002488 0.000031 0.002850 0.001301 -0.000719 -0.004478 0.003289 -0.004814 -0.000362 0.002634 0.003451 -0.000573 0.003646 -0.004691 -0.000895 0.000042 -0.004425 -0.004904 0.000379 0.003247 -0.004484 -0.002305 0.004678 0.003599 -0.004397 0.000535 0.000708 0.000064 -0.000374 -0.001881 0.001661 0.004122 0.001342 -0.004486 -0.004205 -0.004410 0.003339 0.000485 0.003569 -0.003666 -0.000410 -0.001688 -0.004316 -0.003922 -0.003145 -0.004857 -0.002830 -0.000726 0.003763 -0.004758 -0.001638 -0.000475 0.004238 -0.000424 -0.004661 -0.000280 0.000368 0.001337 -0.003124 -0.000730 0.004464 -0.002556 0.003633 0.003903 -0.000836 0.001772 0.000251 0.002055 -0.001994 -0.004595 -0.004301
失控 -0.001615 -0.003160 -0.001624 -0.004479 -0.003025 0.003194 0.000161 -0.000765 -0.001251 0.003370 -0.002817 -0.001115 0.002490 -0.001956 -0.002858 0.004757 0.001020 -0.001597 0.003668 -0.004135 0.000362 -0.002900 -0.002444 0.001356 0.003356 -0.000113 -0.003200 0.001474 -0.001465 -0.002150 -0.002584 -0.001026 0.002699 -0.001933 -0.002112 0.000406 0.003791 -0.001850 0.002058 0.004614 0.001769 0.002035 -0.000637 0.004985 0.002152 0.003574 -0.000724 0.002752 0.000058 -0.002354 -0.004221 -0.004025 -0.002708 -0.000946 -0.004285 0.001442 0.002186 0.001735 -0.000338 0.002699 -0.001112 -0.001249 -0.000075 -0.000511 0.000537 -0.001983 0.000133 0.002655 0.004974 0.001953 -0.002744 0.004302 0.002162 -0.000498 -0.001389 -0.002513 -0.001113 -0.000917 -0.003140 0.001728 -0.004444 -0.000128 0.000134 0.001972 -0.003290 0.002057 -0.004691 0.002339 0.000998 0.002366 0.001556 -0.000719 -0.000939 0.002350 -0.002359 0.003779 -0.004860 0.002199 -0.001594 0.004466
背包十年:我的职业是旅行 -0.002521 0.001508 -0.002269 0.004215 0.002385 0.002693 -0.000076 -0.004572 0.003393 -0.004467 -0.003106 0.004079 -0.003256 -0.001301 -0.000218 0.003195 0.002972 -0.002132 0.001080 -0.003056 0.002167 0.001574 -0.004143 -0.002792 -0.003731 -0.004660 0.002533 -0.003262 -0.002593 -0.004716 -0.003535 -0.003474 -0.001682 -0.003069 -0.001359 -0.004639 -0.004999 0.004012 -0.004522 0.002522 0.002963 -0.002648 0.000833 0.004422 -0.001613 0.004686 0.001306 0.001434 -0.002552 0.000407 0.000768 0.003605 -0.002653 -0.001787 -0.000711 0.002756 0.001620 -0.003279 -0.000912 -0.004905 0.003788 -0.003991 -0.002741 -0.004604 0.003378 0.001965 -0.004192 0.003751 0.002674 -0.000446 -0.002916 0.002767 0.000712 0.002540 0.004491 0.004783 0.002660 0.004971 -0.003615 -0.003755 0.000826 0.001967 0.000172 0.003470 0.003388 0.001625 0.001001 -0.001581 0.001363 0.000212 -0.001539 -0.000294 -0.000782 0.004848 0.000830 -0.004580 -0.000932 0.002063 0.002578 -0.000062
中国历代政治得失 -0.002147 0.000583 0.000399 -0.003298 0.000862 0.002271 0.000077 -0.000880 -0.001915 -0.002441 0.002240 -0.002152 -0.000803 -0.004876 0.002805 0.000996 0.001408 0.003816 -0.004404 0.004804 0.000240 0.003596 -0.001344 -0.003760 0.000639 -0.000729 -0.001517 -0.002389 0.000396 -0.002390 0.004929 -0.002615 -0.003335 -0.001351 0.000738 0.002341 0.002971 0.004451 0.003428 0.004218 -0.000389 -0.002507 -0.004504 -0.001163 0.003915 0.001168 0.004510 -0.004405 -0.002644 -0.000455 -0.004506 -0.002273 0.000248 -0.003256 0.000567 -0.002309 0.000370 -0.004552 -0.001928 -0.000213 0.000900 0.004201 0.003736 -0.004194 0.003424 0.002502 0.002642 0.000009 -0.004898 0.003794 -0.000371 -0.000478 -0.001714 0.003547 -0.000753 -0.001685 -0.000345 0.000710 -0.001829 -0.000188 -0.001631 0.002686 -0.000259 -0.003599 0.004852 0.002781 -0.000949 0.001275 -0.002383 -0.004619 0.000170 0.002838 -0.004937 -0.002899 -0.003511 0.002549 -0.003938 -0.003674 0.004721 -0.001234
人类简史:从动物到上帝 -0.004939 0.001339 0.002375 0.001084 -0.003840 0.004351 -0.003913 -0.002823 -0.000201 0.002223 0.000874 -0.002723 -0.004415 -0.001918 0.000733 -0.001533 -0.002725 0.003930 0.000012 0.001255 -0.001451 0.002825 0.004973 0.000214 0.001307 0.002908 -0.002162 0.004029 0.000681 -0.002501 -0.003808 -0.004003 0.004859 -0.001031 0.000423 -0.003866 -0.004043 -0.000973 -0.000057 0.003956 -0.002536 -0.002594 0.003189 -0.001299 0.002601 -0.000839 -0.004774 -0.000645 -0.004956 0.000776 -0.004985 0.000827 -0.000383 0.004122 0.002773 -0.000375 0.000264 -0.003622 -0.001175 0.003342 -0.004839 -0.001183 0.000876 0.002727 0.004997 0.001928 0.001613 -0.001769 -0.003468 -0.004935 0.004084 0.003473 0.001947 0.000969 -0.001267 -0.003117 -0.000240 0.002593 -0.002497 -0.000405 -0.002767 0.001182 0.004786 -0.000851 0.000787 -0.003323 -0.003316 -0.004218 0.004355 0.003318 0.000818 0.000813 0.000494 0.002456 -0.001653 -0.004553 0.002438 -0.002215 -0.002851 0.004782
巨人的陨落:世纪三部曲 -0.002707 -0.000451 0.004581 -0.002668 0.004656 0.000665 0.004068 0.000111 0.001900 -0.002252 0.002844 -0.001505 0.000102 0.003752 0.000102 0.004608 -0.003021 -0.001797 0.000484 0.000189 0.002077 -0.000274 -0.004785 0.001326 0.003646 -0.003993 -0.001719 0.002625 0.003680 -0.002365 0.000782 -0.000139 0.002678 -0.000716 0.004052 -0.004580 -0.001031 0.000095 -0.000267 0.004323 -0.000311 -0.001686 -0.004866 0.003303 -0.000186 -0.001053 -0.003808 0.000182 -0.003755 -0.001553 0.001162 0.002542 -0.002687 0.000029 -0.003857 -0.000076 -0.004756 -0.003864 -0.000633 -0.002980 0.000990 -0.004738 0.004558 -0.004319 0.003922 -0.004603 -0.004229 0.002649 -0.001068 0.000695 -0.002427 -0.001518 -0.002125 -0.000702 -0.002784 0.004235 0.002331 0.000844 -0.004816 0.000564 -0.004208 -0.002001 0.004271 -0.004359 0.001444 -0.000023 0.000379 0.000990 0.003797 0.000181 0.000588 -0.001464 0.003864 -0.002646 0.001063 -0.001921 -0.002449 0.003747 -0.000589 0.000845
浪潮之巅 -0.001410 0.000975 0.001459 0.004317 -0.001350 0.003240 -0.002849 -0.004731 0.002532 0.000684 -0.001048 0.004996 0.004283 -0.003374 0.001131 0.000398 -0.001392 -0.004837 0.004071 0.003154 -0.004456 -0.004660 0.000727 -0.003715 0.003408 -0.001197 0.001120 -0.004673 -0.001525 -0.002422 -0.003855 0.002444 0.002924 -0.001528 -0.003786 0.001049 -0.003667 -0.004679 0.000934 -0.001212 0.003702 -0.000161 -0.001339 0.001392 -0.004802 -0.004672 -0.000997 -0.003750 0.004603 -0.003460 -0.000476 -0.000210 0.002972 0.004742 -0.004882 0.003396 0.001911 0.000693 -0.004322 -0.004214 -0.001061 0.001003 0.000676 0.000090 0.001792 0.004484 -0.001123 -0.004780 0.004842 -0.000539 0.004234 0.002926 0.001257 0.004235 -0.001964 -0.001130 0.004125 0.000886 0.002126 -0.003775 0.002788 -0.000714 -0.002946 -0.001899 0.002299 -0.002532 0.002443 0.000130 0.004059 -0.004193 0.000191 -0.000134 0.000330 0.001923 -0.003337 0.000034 -0.003814 0.004103 -0.000575 -0.002287
枪炮、病菌与钢铁:人类社会的命运 0.003527 -0.000948 -0.001527 -0.001985 0.003312 0.003557 0.003615 -0.000856 0.000294 0.001916 0.004872 0.004441 0.004855 0.003826 0.004061 -0.004266 -0.001055 0.001156 -0.004062 -0.001587 -0.001647 -0.004894 -0.000843 0.003676 -0.002761 -0.002717 0.001829 0.001524 -0.003530 -0.003104 -0.002767 -0.002905 0.000111 -0.004337 0.000000 -0.001470 0.004731 -0.003842 -0.004951 -0.000492 0.001039 -0.000996 0.002014 0.003042 0.002400 -0.004785 0.001058 0.001873 -0.003242 -0.001921 -0.004955 0.001058 -0.004890 -0.000018 0.004897 0.004750 -0.001818 -0.001381 0.000409 0.004161 -0.003285 -0.000912 -0.004762 0.001863 -0.002152 -0.002996 -0.002804 0.004905 0.000679 -0.003995 -0.000953 0.001841 0.003529 0.001191 -0.001949 -0.002586 -0.003226 -0.000020 -0.000369 -0.004201 0.004757 -0.000429 -0.002804 0.000354 0.002083 -0.001869 0.003276 -0.002086 -0.003151 -0.000797 -0.002571 0.001112 -0.002563 0.002478 -0.003379 0.004512 0.001975 0.003640 -0.003445 0.002445
寻路中国:从乡村到工厂的自驾之旅 -0.001971 0.004554 0.001652 -0.000392 0.003005 0.001937 -0.002275 0.004769 0.000433 0.000629 0.000990 -0.001923 -0.004997 0.002036 -0.000779 0.004774 0.001647 -0.003464 -0.002309 0.004150 -0.004517 -0.000150 0.002621 -0.001628 0.000269 -0.003821 0.000787 -0.002877 -0.004918 0.000730 -0.002485 0.000898 0.002645 0.003916 -0.002999 -0.000962 0.002956 0.003488 -0.004066 0.004110 0.000322 0.004282 -0.000989 -0.002491 0.004410 0.001201 -0.002371 0.001090 0.004922 0.002319 -0.004857 0.004848 -0.004818 0.004635 -0.002231 -0.002362 0.001924 0.000907 0.001071 -0.003903 0.000123 -0.003832 0.002153 -0.000534 -0.004355 -0.003898 0.001978 0.001337 -0.002713 -0.002089 0.004016 0.004693 0.004062 -0.000378 -0.003970 0.004934 0.003908 -0.000943 -0.002401 -0.003022 0.004783 0.002594 0.001785 0.000826 0.001117 0.000778 -0.004569 0.001537 0.004064 0.004867 -0.002324 0.000110 0.001030 0.003255 0.004041 0.000148 -0.004067 0.001901 -0.004811 -0.001971
从0到1 0.001639 -0.004951 0.002429 -0.002567 -0.002266 -0.003238 -0.001041 -0.002687 0.004481 -0.000963 -0.000280 0.003421 0.002700 0.001209 -0.001878 0.003743 0.004881 0.000356 -0.004996 0.002899 -0.003229 0.000647 -0.002124 -0.002217 -0.002800 -0.004939 0.000818 -0.004242 -0.004693 -0.004108 0.002052 0.003744 0.004568 0.003687 -0.004169 -0.003650 0.002994 0.004184 -0.003346 0.001778 -0.004447 0.001462 0.001948 -0.001982 -0.002203 -0.003534 0.004921 0.001757 -0.003652 0.004015 0.000809 -0.002531 0.000339 0.002922 0.004813 0.000215 0.002599 -0.001157 0.001708 0.001576 -0.001786 -0.002839 0.000065 -0.003584 -0.004035 0.003664 -0.000985 -0.002470 -0.000973 0.003044 -0.001204 -0.001493 0.003605 -0.004789 -0.002276 0.002191 -0.003819 -0.003136 0.001261 0.003356 -0.000060 0.004465 0.003917 0.002808 -0.004108 0.001751 -0.002505 -0.004286 0.003009 0.001665 0.000066 0.003116 0.003334 0.002502 -0.004385 -0.000413 0.004186 -0.003182 0.001395 -0.000758
活着 -0.003649 0.004077 0.004942 -0.004960 0.002170 0.003883 0.001249 0.000872 -0.001682 -0.002458 -0.003511 0.003168 0.003471 0.003433 -0.003733 0.001294 -0.004848 -0.004475 0.004335 -0.001343 -0.001187 -0.004894 0.003119 0.000549 0.003398 0.003448 0.001267 -0.001219 0.003243 -0.002698 -0.002567 0.004772 0.000199 0.000952 0.004427 0.000978 0.003010 0.000367 0.004846 0.000884 -0.002916 -0.001692 0.003033 -0.001511 -0.003166 0.000419 0.002094 -0.002428 0.004322 -0.003168 0.004713 -0.004664 0.000353 0.002319 -0.004530 -0.004257 -0.004532 0.002186 0.000175 0.000539 -0.000676 -0.002788 -0.003682 0.003078 -0.001121 0.000172 -0.000471 0.002149 -0.004301 0.003584 0.004806 -0.004590 -0.004088 0.002156 -0.000329 0.003857 0.002100 0.001968 0.000515 -0.003187 0.001119 -0.002628 -0.002759 0.001325 0.001370 -0.001864 0.000927 0.004581 0.004004 -0.004416 -0.003385 0.002123 0.002600 -0.004361 -0.001124 -0.004095 0.004876 0.000478 0.004088 0.000191
百年孤独 0.003812 0.002784 -0.004937 -0.002762 -0.003589 -0.000513 0.000278 0.004826 -0.003946 0.003184 0.004181 -0.004293 0.001655 -0.004285 -0.001786 -0.001442 0.002644 0.004947 0.004824 -0.004375 -0.000904 -0.004290 -0.002830 -0.003094 -0.003059 0.000616 -0.003152 -0.004508 0.004380 0.003616 -0.001014 -0.000361 0.004903 -0.000463 -0.000424 -0.003542 -0.003179 -0.001982 0.003908 0.003443 -0.004537 0.004925 0.003118 -0.000015 0.001438 -0.004626 0.000940 0.003988 -0.001774 -0.004272 0.003483 0.003651 -0.004344 -0.000751 0.002874 0.000284 -0.002607 0.002004 -0.004798 -0.004668 0.001422 -0.001296 -0.003321 0.003973 -0.004973 0.004282 0.000404 0.004466 -0.002663 0.002658 0.001271 0.001555 0.004172 0.003759 0.002330 0.000182 -0.002713 0.003244 -0.004735 0.000871 -0.000828 0.004025 -0.000247 0.003644 0.002550 0.001546 -0.003263 -0.003818 -0.002604 -0.004584 0.004622 0.001318 0.001881 0.002244 0.002959 -0.000548 -0.003871 -0.004163 -0.001345 -0.004206
创业维艰 -0.003296 -0.001736 0.001061 -0.002871 -0.000238 -0.001999 -0.003035 -0.001070 -0.000517 0.002842 -0.002013 -0.000373 0.003824 0.001584 0.004054 0.004319 -0.001388 -0.003806 -0.003102 -0.004920 0.004632 0.001998 0.000780 -0.003349 -0.001692 -0.002684 -0.004425 0.000905 0.001027 -0.003389 -0.002143 0.002908 0.000566 0.001461 0.003542 -0.000596 0.000362 -0.000462 -0.004061 0.000776 0.000529 -0.004114 0.000619 -0.000268 -0.000141 -0.002690 0.002114 -0.002154 0.000542 -0.004643 -0.000639 0.002583 0.002066 0.003768 0.004060 -0.000556 -0.003987 0.002122 0.003587 -0.003254 0.004745 -0.004413 -0.004723 0.002959 0.000050 -0.003933 0.002163 -0.002306 -0.004369 -0.004384 0.000854 -0.002169 -0.001405 -0.003497 -0.000194 0.003790 0.002549 0.004093 -0.004222 0.001171 0.002334 -0.000452 0.003835 0.004337 0.000126 0.004437 0.003502 0.000548 -0.002909 0.004440 0.000116 0.003252 0.002972 0.002108 0.003013 -0.004197 0.001916 0.003234 0.003539 -0.000862
